digraph Tree {
0 [label="month1_View <= 19.5000\nmse = 0.159623873989\nsamples = 12775", shape="box"] ;
1 [label="month1_View <= 5.5000\nmse = 0.0556927419742\nsamples = 10237", shape="box"] ;
0 -> 1 ;
2 [label="month1_View <= 2.5000\nmse = 0.0188630891487\nsamples = 8631", shape="box"] ;
1 -> 2 ;
3 [label="month1_Follow <= 8.5000\nmse = 0.00914715543714\nsamples = 7582", shape="box"] ;
2 -> 3 ;
4 [label="month1_Modify <= 23.5000\nmse = 0.00850500085097\nsamples = 7577", shape="box"] ;
3 -> 4 ;
5 [label="mse = 0.0074\nsamples = 7561\nvalue = [ 0.00740643]", shape="box"] ;
4 -> 5 ;
6 [label="mse = 0.2461\nsamples = 16\nvalue = [ 0.5625]", shape="box"] ;
4 -> 6 ;
7 [label="mse = 0.0000\nsamples = 5\nvalue = [ 1.]", shape="box"] ;
3 -> 7 ;
8 [label="month1_Modify <= 2.5000\nmse = 0.0831406005629\nsamples = 1049", shape="box"] ;
2 -> 8 ;
9 [label="month1_Follow <= 0.5000\nmse = 0.155500685871\nsamples = 135", shape="box"] ;
8 -> 9 ;
10 [label="mse = 0.1687\nsamples = 121\nvalue = [ 0.21487603]", shape="box"] ;
9 -> 10 ;
11 [label="mse = 0.0000\nsamples = 14\nvalue = [ 0.]", shape="box"] ;
9 -> 11 ;
12 [label="month1_Create <= 30.0000\nmse = 0.0707209515008\nsamples = 914", shape="box"] ;
8 -> 12 ;
13 [label="mse = 0.0699\nsamples = 913\nvalue = [ 0.07557503]", shape="box"] ;
12 -> 13 ;
14 [label="mse = 0.0000\nsamples = 1\nvalue = [ 1.]", shape="box"] ;
12 -> 14 ;
15 [label="month1_Modify <= 3.5000\nmse = 0.198911615688\nsamples = 1606", shape="box"] ;
1 -> 15 ;
16 [label="month1_View <= 15.5000\nmse = 0.246539792388\nsamples = 204", shape="box"] ;
15 -> 16 ;
17 [label="month1_Spotlight search <= 7.5000\nmse = 0.249991646898\nsamples = 173", shape="box"] ;
16 -> 17 ;
18 [label="mse = 0.2492\nsamples = 163\nvalue = [ 0.52760736]", shape="box"] ;
17 -> 18 ;
19 [label="mse = 0.0900\nsamples = 10\nvalue = [ 0.1]", shape="box"] ;
17 -> 19 ;
20 [label="month1_View <= 17.5000\nmse = 0.112382934443\nsamples = 31", shape="box"] ;
16 -> 20 ;
21 [label="mse = 0.1662\nsamples = 19\nvalue = [ 0.78947368]", shape="box"] ;
20 -> 21 ;
22 [label="mse = 0.0000\nsamples = 12\nvalue = [ 1.]", shape="box"] ;
20 -> 22 ;
23 [label="month1_Search users <= 1.5000\nmse = 0.178457105297\nsamples = 1402", shape="box"] ;
15 -> 23 ;
24 [label="month1_View <= 11.5000\nmse = 0.214876892822\nsamples = 707", shape="box"] ;
23 -> 24 ;
25 [label="mse = 0.1843\nsamples = 435\nvalue = [ 0.24367816]", shape="box"] ;
24 -> 25 ;
26 [label="mse = 0.2440\nsamples = 272\nvalue = [ 0.42279412]", shape="box"] ;
24 -> 26 ;
27 [label="month1_View <= 11.5000\nmse = 0.128254231147\nsamples = 695", shape="box"] ;
23 -> 27 ;
28 [label="mse = 0.0884\nsamples = 398\nvalue = [ 0.09798995]", shape="box"] ;
27 -> 28 ;
29 [label="mse = 0.1728\nsamples = 297\nvalue = [ 0.22222222]", shape="box"] ;
27 -> 29 ;
30 [label="month1_View <= 75.5000\nmse = 0.179893980294\nsamples = 2538", shape="box"] ;
0 -> 30 ;
31 [label="month1_Search users <= 5.5000\nmse = 0.245159111911\nsamples = 1157", shape="box"] ;
30 -> 31 ;
32 [label="month1_Modify <= 11.5000\nmse = 0.190611538733\nsamples = 714", shape="box"] ;
31 -> 32 ;
33 [label="month1_View <= 34.5000\nmse = 0.110339834201\nsamples = 388", shape="box"] ;
32 -> 33 ;
34 [label="mse = 0.1629\nsamples = 205\nvalue = [ 0.79512195]", shape="box"] ;
33 -> 34 ;
35 [label="mse = 0.0368\nsamples = 183\nvalue = [ 0.96174863]", shape="box"] ;
33 -> 35 ;
36 [label="month1_View <= 32.5000\nmse = 0.242086642328\nsamples = 326", shape="box"] ;
32 -> 36 ;
37 [label="mse = 0.2465\nsamples = 152\nvalue = [ 0.44078947]", shape="box"] ;
36 -> 37 ;
38 [label="mse = 0.2023\nsamples = 174\nvalue = [ 0.7183908]", shape="box"] ;
36 -> 38 ;
39 [label="month1_Modify <= 11.5000\nmse = 0.205453276195\nsamples = 443", shape="box"] ;
31 -> 39 ;
40 [label="month1_View <= 39.5000\nmse = 0.239403114187\nsamples = 68", shape="box"] ;
39 -> 40 ;
41 [label="mse = 0.2390\nsamples = 43\nvalue = [ 0.39534884]", shape="box"] ;
40 -> 41 ;
42 [label="mse = 0.0384\nsamples = 25\nvalue = [ 0.96]", shape="box"] ;
40 -> 42 ;
43 [label="month1_View <= 31.5000\nmse = 0.178176\nsamples = 375", shape="box"] ;
39 -> 43 ;
44 [label="mse = 0.0963\nsamples = 139\nvalue = [ 0.10791367]", shape="box"] ;
43 -> 44 ;
45 [label="mse = 0.2120\nsamples = 236\nvalue = [ 0.30508475]", shape="box"] ;
43 -> 45 ;
46 [label="month1_View <= 167.5000\nmse = 0.0665481309653\nsamples = 1381", shape="box"] ;
30 -> 46 ;
47 [label="month1_Modify <= 40.5000\nmse = 0.164192429344\nsamples = 396", shape="box"] ;
46 -> 47 ;
48 [label="month1_Log in <= 7.5000\nmse = 0.077747874749\nsamples = 306", shape="box"] ;
47 -> 48 ;
49 [label="mse = 0.0472\nsamples = 282\nvalue = [ 0.95035461]", shape="box"] ;
48 -> 49 ;
50 [label="mse = 0.2500\nsamples = 24\nvalue = [ 0.5]", shape="box"] ;
48 -> 50 ;
51 [label="month1_Log in <= 4.5000\nmse = 0.235061728395\nsamples = 90", shape="box"] ;
47 -> 51 ;
52 [label="mse = 0.2336\nsamples = 43\nvalue = [ 0.62790698]", shape="box"] ;
51 -> 52 ;
53 [label="mse = 0.1268\nsamples = 47\nvalue = [ 0.14893617]", shape="box"] ;
51 -> 53 ;
54 [label="month1_Search users <= 64.5000\nmse = 0.0169610141977\nsamples = 985", shape="box"] ;
46 -> 54 ;
55 [label="month1_Log in <= 10.5000\nmse = 0.00688830231548\nsamples = 865", shape="box"] ;
54 -> 55 ;
56 [label="mse = 0.0013\nsamples = 759\nvalue = [ 0.99868248]", shape="box"] ;
55 -> 56 ;
57 [label="mse = 0.0449\nsamples = 106\nvalue = [ 0.95283019]", shape="box"] ;
55 -> 57 ;
58 [label="month1_View <= 275.5000\nmse = 0.0832638888889\nsamples = 120", shape="box"] ;
54 -> 58 ;
59 [label="mse = 0.1983\nsamples = 11\nvalue = [ 0.27272727]", shape="box"] ;
58 -> 59 ;
60 [label="mse = 0.0268\nsamples = 109\nvalue = [ 0.97247706]", shape="box"] ;
58 -> 60 ;
}